digraph Tree {
node [shape=box] ;
0 [label="X[4] <= -0.309\nentropy = 0.961\nsamples = 891\nvalue = [549, 342]"] ;
1 [label="X[7] <= -0.103\nentropy = 0.824\nsamples = 314\nvalue = [81, 233]"] ;
0 -> 1 [labeldistance=2.5, labelangle=45, headlabel="True"] ;
2 [label="X[3] <= -0.067\nentropy = 0.299\nsamples = 170\nvalue = [9, 161]"] ;
1 -> 2 ;
3 [label="X[0] <= -0.477\nentropy = 0.469\nsamples = 70\nvalue = [7, 63]"] ;
2 -> 3 ;
4 [label="entropy = 0.0\nsamples = 15\nvalue = [0, 15]"] ;
3 -> 4 ;
5 [label="entropy = 0.55\nsamples = 55\nvalue = [7, 48]"] ;
3 -> 5 ;
6 [label="X[2] <= 1.388\nentropy = 0.141\nsamples = 100\nvalue = [2, 98]"] ;
2 -> 6 ;
7 [label="entropy = 0.0\nsamples = 84\nvalue = [0, 84]"] ;
6 -> 7 ;
8 [label="entropy = 0.544\nsamples = 16\nvalue = [2, 14]"] ;
6 -> 8 ;
9 [label="X[3] <= -0.178\nentropy = 1.0\nsamples = 144\nvalue = [72, 72]"] ;
1 -> 9 ;
10 [label="X[0] <= 0.523\nentropy = 0.977\nsamples = 117\nvalue = [48, 69]"] ;
9 -> 10 ;
11 [label="entropy = 0.959\nsamples = 110\nvalue = [42, 68]"] ;
10 -> 11 ;
12 [label="entropy = 0.592\nsamples = 7\nvalue = [6, 1]"] ;
10 -> 12 ;
13 [label="X[3] <= 0.014\nentropy = 0.503\nsamples = 27\nvalue = [24, 3]"] ;
9 -> 13 ;
14 [label="entropy = 0.65\nsamples = 18\nvalue = [15, 3]"] ;
13 -> 14 ;
15 [label="entropy = 0.0\nsamples = 9\nvalue = [9, 0]"] ;
13 -> 15 ;
16 [label="X[3] <= -0.12\nentropy = 0.699\nsamples = 577\nvalue = [468, 109]"] ;
0 -> 16 [labeldistance=2.5, labelangle=-45, headlabel="False"] ;
17 [label="X[0] <= -1.247\nentropy = 0.558\nsamples = 415\nvalue = [361, 54]"] ;
16 -> 17 ;
18 [label="X[3] <= -0.271\nentropy = 0.567\nsamples = 15\nvalue = [2, 13]"] ;
17 -> 18 ;
19 [label="entropy = 0.0\nsamples = 9\nvalue = [0, 9]"] ;
18 -> 19 ;
20 [label="entropy = 0.918\nsamples = 6\nvalue = [2, 4]"] ;
18 -> 20 ;
21 [label="X[8] <= 0.796\nentropy = 0.477\nsamples = 400\nvalue = [359, 41]"] ;
17 -> 21 ;
22 [label="entropy = 0.437\nsamples = 355\nvalue = [323, 32]"] ;
21 -> 22 ;
23 [label="entropy = 0.722\nsamples = 45\nvalue = [36, 9]"] ;
21 -> 23 ;
24 [label="X[1] <= 1.794\nentropy = 0.924\nsamples = 162\nvalue = [107, 55]"] ;
16 -> 24 ;
25 [label="X[0] <= -1.247\nentropy = 0.964\nsamples = 139\nvalue = [85, 54]"] ;
24 -> 25 ;
26 [label="entropy = 0.0\nsamples = 7\nvalue = [0, 7]"] ;
25 -> 26 ;
27 [label="entropy = 0.939\nsamples = 132\nvalue = [85, 47]"] ;
25 -> 27 ;
28 [label="X[0] <= -2.016\nentropy = 0.258\nsamples = 23\nvalue = [22, 1]"] ;
24 -> 28 ;
29 [label="entropy = 0.722\nsamples = 5\nvalue = [4, 1]"] ;
28 -> 29 ;
30 [label="entropy = 0.0\nsamples = 18\nvalue = [18, 0]"] ;
28 -> 30 ;
}