digraph Tree {
node [shape=box] ;
0 [label="X[4] <= -0.309\ngini = 0.473\nsamples = 891\nvalue = [549, 342]"] ;
1 [label="X[7] <= -0.103\ngini = 0.383\nsamples = 314\nvalue = [81, 233]"] ;
0 -> 1 [labeldistance=2.5, labelangle=45, headlabel="True"] ;
2 [label="X[3] <= -0.067\ngini = 0.1\nsamples = 170\nvalue = [9, 161]"] ;
1 -> 2 ;
3 [label="X[0] <= 0.562\ngini = 0.18\nsamples = 70\nvalue = [7, 63]"] ;
2 -> 3 ;
4 [label="X[0] <= -0.169\ngini = 0.113\nsamples = 50\nvalue = [3, 47]"] ;
3 -> 4 ;
5 [label="X[0] <= -0.4\ngini = 0.204\nsamples = 26\nvalue = [3, 23]"] ;
4 -> 5 ;
6 [label="X[3] <= -0.379\ngini = 0.091\nsamples = 21\nvalue = [1, 20]"] ;
5 -> 6 ;
7 [label="gini = 0.278\nsamples = 6\nvalue = [1, 5]"] ;
6 -> 7 ;
8 [label="gini = 0.0\nsamples = 15\nvalue = [0, 15]"] ;
6 -> 8 ;
9 [label="gini = 0.48\nsamples = 5\nvalue = [2, 3]"] ;
5 -> 9 ;
10 [label="gini = 0.0\nsamples = 24\nvalue = [0, 24]"] ;
4 -> 10 ;
11 [label="X[3] <= -0.382\ngini = 0.32\nsamples = 20\nvalue = [4, 16]"] ;
3 -> 11 ;
12 [label="gini = 0.444\nsamples = 6\nvalue = [2, 4]"] ;
11 -> 12 ;
13 [label="X[3] <= -0.126\ngini = 0.245\nsamples = 14\nvalue = [2, 12]"] ;
11 -> 13 ;
14 [label="gini = 0.0\nsamples = 7\nvalue = [0, 7]"] ;
13 -> 14 ;
15 [label="gini = 0.408\nsamples = 7\nvalue = [2, 5]"] ;
13 -> 15 ;
16 [label="X[2] <= 1.388\ngini = 0.039\nsamples = 100\nvalue = [2, 98]"] ;
2 -> 16 ;
17 [label="gini = 0.0\nsamples = 84\nvalue = [0, 84]"] ;
16 -> 17 ;
18 [label="X[3] <= 2.085\ngini = 0.219\nsamples = 16\nvalue = [2, 14]"] ;
16 -> 18 ;
19 [label="gini = 0.0\nsamples = 9\nvalue = [0, 9]"] ;
18 -> 19 ;
20 [label="gini = 0.408\nsamples = 7\nvalue = [2, 5]"] ;
18 -> 20 ;
21 [label="X[3] <= -0.178\ngini = 0.5\nsamples = 144\nvalue = [72, 72]"] ;
1 -> 21 ;
22 [label="X[0] <= 0.523\ngini = 0.484\nsamples = 117\nvalue = [48, 69]"] ;
21 -> 22 ;
23 [label="X[10] <= -0.498\ngini = 0.472\nsamples = 110\nvalue = [42, 68]"] ;
22 -> 23 ;
24 [label="X[3] <= -0.334\ngini = 0.406\nsamples = 53\nvalue = [15, 38]"] ;
23 -> 24 ;
25 [label="X[3] <= -0.368\ngini = 0.444\nsamples = 45\nvalue = [15, 30]"] ;
24 -> 25 ;
26 [label="X[0] <= -0.977\ngini = 0.342\nsamples = 32\nvalue = [7, 25]"] ;
25 -> 26 ;
27 [label="gini = 0.0\nsamples = 7\nvalue = [0, 7]"] ;
26 -> 27 ;
28 [label="gini = 0.403\nsamples = 25\nvalue = [7, 18]"] ;
26 -> 28 ;
29 [label="X[3] <= -0.349\ngini = 0.473\nsamples = 13\nvalue = [8, 5]"] ;
25 -> 29 ;
30 [label="gini = 0.278\nsamples = 6\nvalue = [5, 1]"] ;
29 -> 30 ;
31 [label="gini = 0.49\nsamples = 7\nvalue = [3, 4]"] ;
29 -> 31 ;
32 [label="gini = 0.0\nsamples = 8\nvalue = [0, 8]"] ;
24 -> 32 ;
33 [label="X[3] <= -0.43\ngini = 0.499\nsamples = 57\nvalue = [27, 30]"] ;
23 -> 33 ;
34 [label="X[3] <= -0.492\ngini = 0.489\nsamples = 33\nvalue = [19, 14]"] ;
33 -> 34 ;
35 [label="gini = 0.278\nsamples = 6\nvalue = [1, 5]"] ;
34 -> 35 ;
36 [label="X[0] <= -0.785\ngini = 0.444\nsamples = 27\nvalue = [18, 9]"] ;
34 -> 36 ;
37 [label="gini = 0.49\nsamples = 7\nvalue = [3, 4]"] ;
36 -> 37 ;
38 [label="gini = 0.375\nsamples = 20\nvalue = [15, 5]"] ;
36 -> 38 ;
39 [label="X[3] <= -0.294\ngini = 0.444\nsamples = 24\nvalue = [8, 16]"] ;
33 -> 39 ;
40 [label="X[0] <= -0.362\ngini = 0.231\nsamples = 15\nvalue = [2, 13]"] ;
39 -> 40 ;
41 [label="gini = 0.0\nsamples = 6\nvalue = [0, 6]"] ;
40 -> 41 ;
42 [label="gini = 0.346\nsamples = 9\nvalue = [2, 7]"] ;
40 -> 42 ;
43 [label="gini = 0.444\nsamples = 9\nvalue = [6, 3]"] ;
39 -> 43 ;
44 [label="gini = 0.245\nsamples = 7\nvalue = [6, 1]"] ;
22 -> 44 ;
45 [label="X[3] <= 0.014\ngini = 0.198\nsamples = 27\nvalue = [24, 3]"] ;
21 -> 45 ;
46 [label="X[3] <= -0.04\ngini = 0.278\nsamples = 18\nvalue = [15, 3]"] ;
45 -> 46 ;
47 [label="X[2] <= 1.388\ngini = 0.165\nsamples = 11\nvalue = [10, 1]"] ;
46 -> 47 ;
48 [label="gini = 0.32\nsamples = 5\nvalue = [4, 1]"] ;
47 -> 48 ;
49 [label="gini = 0.0\nsamples = 6\nvalue = [6, 0]"] ;
47 -> 49 ;
50 [label="gini = 0.408\nsamples = 7\nvalue = [5, 2]"] ;
46 -> 50 ;
51 [label="gini = 0.0\nsamples = 9\nvalue = [9, 0]"] ;
45 -> 51 ;
52 [label="X[0] <= -1.785\ngini = 0.306\nsamples = 577\nvalue = [468, 109]"] ;
0 -> 52 [labeldistance=2.5, labelangle=-45, headlabel="False"] ;
53 [label="X[1] <= 1.794\ngini = 0.444\nsamples = 24\nvalue = [8, 16]"] ;
52 -> 53 ;
54 [label="gini = 0.0\nsamples = 15\nvalue = [0, 15]"] ;
53 -> 54 ;
55 [label="gini = 0.198\nsamples = 9\nvalue = [8, 1]"] ;
53 -> 55 ;
56 [label="X[5] <= 0.601\ngini = 0.28\nsamples = 553\nvalue = [460, 93]"] ;
52 -> 56 ;
57 [label="X[3] <= 0.392\ngini = 0.204\nsamples = 433\nvalue = [383, 50]"] ;
56 -> 57 ;
58 [label="X[0] <= -1.285\ngini = 0.193\nsamples = 417\nvalue = [372, 45]"] ;
57 -> 58 ;
59 [label="X[1] <= 1.34\ngini = 0.444\nsamples = 12\nvalue = [8, 4]"] ;
58 -> 59 ;
60 [label="gini = 0.32\nsamples = 5\nvalue = [1, 4]"] ;
59 -> 60 ;
61 [label="gini = 0.0\nsamples = 7\nvalue = [7, 0]"] ;
59 -> 61 ;
62 [label="X[8] <= 0.796\ngini = 0.182\nsamples = 405\nvalue = [364, 41]"] ;
58 -> 62 ;
63 [label="X[3] <= -0.382\ngini = 0.164\nsamples = 356\nvalue = [324, 32]"] ;
62 -> 63 ;
64 [label="X[3] <= -0.489\ngini = 0.188\nsamples = 285\nvalue = [255, 30]"] ;
63 -> 64 ;
65 [label="gini = 0.129\nsamples = 144\nvalue = [134, 10]"] ;
64 -> 65 ;
66 [label="gini = 0.243\nsamples = 141\nvalue = [121, 20]"] ;
64 -> 66 ;
67 [label="X[9] <= 1.472\ngini = 0.055\nsamples = 71\nvalue = [69, 2]"] ;
63 -> 67 ;
68 [label="gini = 0.031\nsamples = 64\nvalue = [63, 1]"] ;
67 -> 68 ;
69 [label="gini = 0.245\nsamples = 7\nvalue = [6, 1]"] ;
67 -> 69 ;
70 [label="X[3] <= -0.343\ngini = 0.3\nsamples = 49\nvalue = [40, 9]"] ;
62 -> 70 ;
71 [label="X[0] <= -0.554\ngini = 0.224\nsamples = 39\nvalue = [34, 5]"] ;
70 -> 71 ;
72 [label="gini = 0.444\nsamples = 6\nvalue = [4, 2]"] ;
71 -> 72 ;
73 [label="gini = 0.165\nsamples = 33\nvalue = [30, 3]"] ;
71 -> 73 ;
74 [label="X[3] <= -0.189\ngini = 0.48\nsamples = 10\nvalue = [6, 4]"] ;
70 -> 74 ;
75 [label="gini = 0.32\nsamples = 5\nvalue = [1, 4]"] ;
74 -> 75 ;
76 [label="gini = 0.0\nsamples = 5\nvalue = [5, 0]"] ;
74 -> 76 ;
77 [label="X[3] <= 0.621\ngini = 0.43\nsamples = 16\nvalue = [11, 5]"] ;
57 -> 77 ;
78 [label="gini = 0.408\nsamples = 7\nvalue = [2, 5]"] ;
77 -> 78 ;
79 [label="gini = 0.0\nsamples = 9\nvalue = [9, 0]"] ;
77 -> 79 ;
80 [label="X[3] <= -0.122\ngini = 0.46\nsamples = 120\nvalue = [77, 43]"] ;
56 -> 80 ;
81 [label="gini = 0.0\nsamples = 10\nvalue = [10, 0]"] ;
80 -> 81 ;
82 [label="X[0] <= 1.793\ngini = 0.476\nsamples = 110\nvalue = [67, 43]"] ;
80 -> 82 ;
83 [label="X[3] <= -0.102\ngini = 0.495\nsamples = 89\nvalue = [49, 40]"] ;
82 -> 83 ;
84 [label="X[0] <= 0.716\ngini = 0.26\nsamples = 13\nvalue = [2, 11]"] ;
83 -> 84 ;
85 [label="gini = 0.219\nsamples = 8\nvalue = [1, 7]"] ;
84 -> 85 ;
86 [label="gini = 0.32\nsamples = 5\nvalue = [1, 4]"] ;
84 -> 86 ;
87 [label="X[3] <= -0.063\ngini = 0.472\nsamples = 76\nvalue = [47, 29]"] ;
83 -> 87 ;
88 [label="gini = 0.0\nsamples = 5\nvalue = [5, 0]"] ;
87 -> 88 ;
89 [label="X[3] <= -0.032\ngini = 0.483\nsamples = 71\nvalue = [42, 29]"] ;
87 -> 89 ;
90 [label="gini = 0.346\nsamples = 9\nvalue = [2, 7]"] ;
89 -> 90 ;
91 [label="gini = 0.458\nsamples = 62\nvalue = [40, 22]"] ;
89 -> 91 ;
92 [label="X[3] <= -0.047\ngini = 0.245\nsamples = 21\nvalue = [18, 3]"] ;
82 -> 92 ;
93 [label="gini = 0.0\nsamples = 6\nvalue = [6, 0]"] ;
92 -> 93 ;
94 [label="X[0] <= 2.37\ngini = 0.32\nsamples = 15\nvalue = [12, 3]"] ;
92 -> 94 ;
95 [label="gini = 0.408\nsamples = 7\nvalue = [5, 2]"] ;
94 -> 95 ;
96 [label="gini = 0.219\nsamples = 8\nvalue = [7, 1]"] ;
94 -> 96 ;
}